solver_type L2R_L2LOSS_SVC_DUAL
nr_class 2
label 1 -1
nr_feature 2000
bias -1
w
0.002558728678275246 
-0.001544189995778277 
-0.001793417828067656 
5.763375861731322e-005 
-0.001156291649620764 
-0.001187239612999187 
-0.001235295111762123 
0.003695593960675243 
0.001875598221769045 
-0.002195570311665843 
-0.001201878040859608 
-0.0004743234426950782 
-0.00153825205179234 
-0.001033720269914583 
-9.35820608688362e-005 
0.00399889912183619 
0.002688181938098195 
-0.0009485722962431128 
-0.0004106219366872295 
-0.001361658025067359 
-0.001139801414472734 
-0.001077727186005738 
-0.001181760991828917 
0.002700404504525301 
0.0006790910562722262 
-0.001227724953114634 
-0.000655130477473542 
-0.001413278999826844 
-0.0003089896243659273 
-0.0001121214408363974 
-0.001420710302744725 
0.00380078919531437 
6.939965532274026e-005 
-6.990056901202857e-005 
-0.002130301009128454 
0.001441994077227158 
0.0008245471033081803 
-0.000551576850772124 
-0.0009961330276213095 
0.0007515002251936514 
0.0008496339378371545 
-0.0005493297805613607 
-0.001848307666401035 
0.001423475890006004 
-0.00108929124483363 
-0.001593711068860628 
-0.00102561146662897 
0.003141429627991708 
0.0007617630632055763 
0.0001255153505229441 
-0.0005746760074569414 
-2.59413149429573e-005 
0.0001955057409908477 
-0.000301421044695817 
-0.001671294337991511 
0.0008623353724973467 
0.0007931878719751311 
-0.0004018304564124021 
-0.002185141203496079 
-0.0007977623327650149 
-0.0006726153918104146 
-0.0003855430694251662 
-0.0008355927052067051 
0.003921718344598472 
0.002528070046520943 
0.0002862286195526264 
-0.0002965850575895641 
-0.001375786282827835 
-0.00209018667776858 
-0.0015406565048825 
-0.0007268613439254357 
0.002525561313361009 
0.0007279996037291467 
-0.0007859903308956724 
-0.001491930806727468 
-0.0002027142929807682 
0.0004994004045531491 
-0.0007501651775442954 
-0.0001125721266895726 
0.001462291290816884 
0.001769197786416084 
-0.001269844611184372 
-0.001391076867955566 
0.0001206898513594561 
-0.0002771018949794815 
-0.0001180138531825998 
0.000432989479961877 
7.500541857463905e-005 
0.002390471619968873 
-0.00212055699957466 
-0.0006655000667422982 
0.00134445919246829 
0.001327377625541902 
-0.0009307983796324355 
-0.0009103974312169534 
-0.001103165459386772 
6.515424180108752e-006 
0.0001946687684500257 
-0.0009372442097587397 
0.0009585323230216715 
-7.647567909348196e-006 
-0.0006577124356386153 
0.0001398914896040918 
-0.0002653487043461114 
-0.001567674122325986 
-0.0004246419901961381 
0.0003109992448253974 
0.001359248205807406 
0.0002346386450637098 
0.001383897045249671 
-0.0004487794263407402 
-0.001483383704360643 
0.001232124369718411 
-0.0001592268644847968 
-0.000256448631499218 
0.0005787449299822182 
-0.0002128747652664332 
-0.0003968054146925205 
-0.0003415062141451553 
-0.001104205434969512 
0.0007936502852232561 
0.0005344695910430757 
-0.0008056930575690525 
-0.001071922657175049 
0.001057450180486065 
0.0003809642930369693 
-0.0008412445030921198 
-0.0007991080597133974 
-0.0007454802215577901 
-0.001178423766607761 
0.001031268914936634 
0.002023340066050385 
0.0007316603560503705 
-5.323139433162946e-006 
-0.0005777611657982392 
-0.002020088257876211 
7.71167910136964e-005 
-0.0005756513606240856 
0.0001906881225353522 
0.0009575476300645519 
-0.001005213035771317 
7.599651321655364e-005 
0.00115591385215772 
-0.001567285994815935 
0.001025433942386898 
-0.0012373762101272 
-0.0006686843730160089 
-0.0002376218346069177 
0.0002608383042816644 
0.0002119658714469711 
-0.0005683198371243715 
0.0005443665108958039 
0.0006553950062796925 
0.0004370452564975479 
0.000170273661756456 
0.00121951154517927 
0.0004538089486059869 
-0.001468890601744518 
-0.001148394625564294 
-0.001003565425460803 
0.0002408517726867432 
-0.0006366169580902109 
-0.0004865981188098102 
-0.0002185803772379554 
0.0001463197423233112 
-0.0008263222167913689 
0.0009044808222449272 
0.0002086491951004496 
0.0002060657530319982 
-0.000825622957358096 
-0.001485291307187815 
-0.0002670926886379297 
-0.001252821080077916 
0.0005204431612304405 
0.002234820160002888 
0.000243504331637433 
0.002090495310072057 
-0.0006479676212489022 
-0.001021541882959904 
0.001354667695619315 
-0.001299061969355841 
-0.0005756158602201867 
0.0001062036485906796 
-0.0006901149205115534 
0.001388828279338525 
-0.000154616895814468 
-0.0001601555503573972 
-0.0007313102916540518 
-0.001072841742334236 
0.001064209496972819 
0.0008879112738404443 
-0.001893772819493348 
0.0009248394819415585 
-0.0004622079924555912 
0.0006484081293087388 
-0.0003065452228033503 
-0.001542375986278051 
0.0007678169977381066 
0.000291450941982669 
-0.00101608898274291 
0.0004215401895687653 
0.0004175858078852561 
-0.0006234846032548613 
0.0006418886230475985 
-0.002004374276037109 
-0.0002472945360262323 
0.001436774274978692 
-0.0007169379861545507 
-9.501570326553893e-006 
-0.001540825948637007 
0.0003681774939185593 
-0.0005025437073369368 
-0.001623532360160416 
0.001060517613120601 
0.0002859468821960794 
0.001293896698319313 
-5.290971851889461e-005 
-0.0005916284848139094 
-0.0001919827474061087 
3.572135232452709e-005 
-0.0006725003107318192 
0.000117440849208391 
0.0004780009888420375 
0.0001921867085022801 
0.00122418893813135 
0.00181644767434128 
-0.00163662359402497 
-0.0006833417574573374 
-0.001923476287643454 
0.0003657229053805998 
-0.001117211741252135 
0.0012354464206812 
0.0009983491487302178 
-0.001150568589461494 
-0.0002090615955592872 
-0.0001688731622964261 
-8.348310303374568e-005 
-0.0002457240334204957 
-0.0006142806288861653 
0.0007544269540726042 
8.958510016632747e-005 
-0.0004947375546969577 
-0.0004384620729401756 
0.001448352145754473 
-0.0002024741866788133 
-0.000932510983461303 
-0.0004929299401098906 
0.0003459119260681017 
-0.001327599915378774 
0.0001651363408430951 
9.941394990265848e-005 
-0.0002794308953154954 
0.0002539535470583801 
0.000722742578508657 
0.0003232675714654323 
-0.0007001362279848461 
0.0003514891118659935 
-0.0002683916648860357 
0.0001694227430209811 
-0.001824653246200178 
-0.0009671483218576663 
0.001854827299306866 
0.0003438751446863253 
-0.0004231073580716178 
-0.000253082160051828 
-0.0003607484997221008 
0.0006302863006643271 
0.0004038387501479455 
0.0002374399999329214 
0.0009123719251915817 
-0.0002462151941145727 
-0.002022217850652093 
-0.0007037147610365435 
-0.0009781737498656021 
-0.00114234011410719 
0.0003617435077216813 
0.001072740472703203 
0.00125622372555813 
0.0001420405580588164 
-0.0006789799037590639 
-0.001311646359395177 
0.00061176094140428 
0.0008297072462610976 
0.0007291031924889992 
-0.001844413058104888 
0.000618792221593779 
-3.456712125512405e-005 
-0.0002874332600560044 
-0.001230442294909809 
0.0001837906740031212 
0.00113401790889334 
0.0005928876747080888 
0.0003626370056526552 
0.000820435598261088 
-0.0003056597158044644 
-0.002251692772050467 
0.0007301902955401804 
-0.0001734207103804967 
0.0008363270748302324 
-0.0003839245282189883 
-0.001684177994115424 
0.0009128487549183641 
0.0003802350666083651 
-0.00128285314261417 
0.0009140460461755626 
0.0003410222592821667 
-0.0002122872188854921 
-0.0006418602136100397 
-0.00221092901193138 
0.001132700831536086 
-0.0006051302456221954 
0.0005846669257860064 
0.00167388583467849 
-0.0006417970025484006 
-0.0008694676103982867 
-9.589750111784266e-005 
-0.001627224370189642 
-0.0004587712753515101 
0.0009633916964077743 
0.0003995433956113307 
-0.0009291704802038086 
0.001119250081679186 
-0.0001125223935211225 
9.205472668057117e-005 
0.0008279759474600027 
0.0004538426131335592 
-0.0007247712251668593 
-0.001460595777233701 
-0.001984142719533774 
-0.0004576885536864497 
0.001311369996339467 
-0.0006143223124870591 
0.0003071468895557669 
0.0004789919426689663 
0.001493520284270787 
-0.001251535649824324 
-0.001277331447329516 
6.658598628148293e-005 
2.915239003096721e-005 
-0.0003489053554568458 
-2.135090234407534e-005 
0.002022040817221095 
4.231087430232165e-005 
-0.001220331339499507 
-0.001157855827548146 
-0.00189773197008759 
-0.0002913819910725533 
-0.0003530751219157331 
-0.0008608970843301167 
0.0005672734397733572 
0.00237801513140467 
0.000894110899483883 
-0.0008017044737213979 
0.000775586184411758 
-0.0003567695617509332 
0.0007038661832605997 
-0.00106305575445075 
0.0001502254488114743 
0.0007021777344485598 
-0.0007033694904173053 
-0.002238454765868929 
-6.162830394585149e-005 
0.0001007731720860809 
0.001506206658697719 
0.00125704515059188 
0.001154192129362462 
-0.0004987954345797848 
-0.001907799280820249 
-0.0003332164355313757 
0.001577459348786045 
0.0004650938350206312 
0.0002532382415158059 
-0.0006788646481288501 
0.0001987560988341501 
-0.0008487083284676889 
-0.001272059501944034 
0.0002180976135100538 
0.0007853704850499933 
0.0005978329067313651 
0.000947564881873013 
-0.001525002777926515 
7.312167125133732e-005 
-0.0004517257163593384 
-0.001341395471986497 
-0.001321006808753063 
0.0005795763447075848 
0.000356819990414097 
0.0009521710843179597 
-0.001171133510631702 
0.001843272735434073 
0.0006542648231193989 
-0.002555395128427427 
-9.209374831179462e-005 
0.0001707279675767916 
-0.001025618558886056 
0.001607729199341861 
4.361474084136028e-005 
-0.0005702341968995415 
0.0001466171894026721 
-0.000895421780521252 
-0.0002912020556196199 
-7.537870237058205e-005 
-0.0008269100341968178 
0.0004023304944019084 
0.001506914984072876 
0.0001078440012335571 
-0.0005505395253591725 
-0.001018000304735907 
0.0002451066511560843 
-0.0006193577604331503 
0.0006553516097821147 
0.001339600807891421 
-4.516563620246231e-005 
-0.001391047751317676 
-7.17323243497243e-006 
-0.0008164678844849366 
-0.001935104277224207 
0.0004055654258725335 
0.001457941817862836 
9.430058791822097e-005 
-6.848279340511223e-005 
0.0008037676915674379 
0.000876777412847907 
-0.002317870997459266 
0.0007024075360397273 
0.001622622603355381 
-0.001529217331542869 
-0.0008757221636642102 
-0.001652399537251775 
0.001709101528751976 
0.001450591391566447 
-0.002111726485465732 
-0.00102515717956767 
0.0001452569627896618 
0.001458678228726914 
-0.0009208018149921981 
-0.001276408928065843 
0.00140963549785714 
0.0002116107691664992 
-0.0006926371858216335 
-0.001070103397780326 
-0.0005429651211546839 
0.001703770648835304 
-0.001663558460034636 
-0.0002427106358868703 
0.003094281213912256 
0.0007230375008468612 
-0.002619239081608912 
-0.001895763190219815 
0.002049712872353235 
0.0008721616866158613 
-0.001584387060349541 
-0.001254095392674032 
6.073029377718672e-005 
0.001814102385381082 
-0.0007580504404258433 
1.788211443079998e-005 
0.001312282469585268 
0.0004949993824541714 
0.0009721054765435904 
-0.0006915259105482154 
0.0008559874879723092 
-0.0001268197887549804 
-0.003494194609803224 
-0.0006789081156818812 
-0.001149549607862684 
-0.0006503740440170616 
0.0005375010458127431 
0.00175500225927083 
0.00119426181712469 
0.0005924926911854732 
-0.002296054333512218 
-0.0009227807515870283 
-0.001058268743397908 
-0.001110487531651575 
0.000928895468911861 
0.0007443047506293031 
0.0005637045966475351 
0.0005449603098934897 
-0.0003634888810434616 
0.0001006759603245716 
-0.0008257134625441916 
-0.001361041298279838 
0.001410348366477816 
0.0006846729583726865 
-0.0009761687332961979 
-0.0009230929363547332 
0.001246620232059036 
-0.0004049892408060191 
0.001718947397536586 
-0.0003788382209842171 
0.0007783753056939501 
-0.0009797328985929968 
-7.748172335175809e-005 
-6.009691280393916e-005 
-0.001366833324338238 
-0.0003091684942878175 
0.001801141027988438 
6.339322803064986e-005 
-0.002480508893531068 
-0.001208294664879821 
0.0006733752589930463 
0.002220905268650654 
-0.001418706388978378 
-0.001637113330252637 
-3.365786588690082e-005 
-0.001334217105754283 
-0.0007541880719494947 
-0.0007049338993963889 
0.002092426094392992 
0.002748645387028857 
-0.001074800036136157 
-0.00220285827559074 
-0.001679679313489214 
0.0005792198219963523 
0.0004123177495975308 
-0.001628873516023387 
0.002126389038756353 
0.001791134003416466 
-0.000149696483423948 
-9.949874381416326e-005 
0.001505188686925932 
0.0002708897232032508 
-0.001533363157333129 
-0.000155735427483498 
0.0008882365369573541 
0.0007846840896081272 
-0.002315862264067871 
0.0003310120023997738 
0.0003711596196601817 
0.0007465847335252901 
-0.0003432934708340788 
-0.0005844787601467492 
-0.0002340303312334949 
0.0002599744309720912 
-0.001206243934890536 
-0.0009345969350083282 
0.0009982101791555541 
0.00039485402802355 
-4.627001541460576e-005 
-0.002292864678651473 
0.002144688476207296 
0.001450792577949901 
-0.002401597925270274 
-0.002265576555662962 
0.0007011409934562807 
-0.001565706417424874 
-0.0005600157786241786 
0.0007637282949289884 
0.001004649048776663 
0.00253765217216913 
-0.001325710202519133 
0.0005711661407218078 
-0.0002123238330532138 
-0.00273047368205736 
0.001777483666652449 
0.003034692950873321 
-0.001400008261191856 
-1.799700963040936e-005 
-0.001746695515862438 
-0.0005554413187608937 
-0.0001515292570442692 
-0.000263652071678649 
0.0004134572829327334 
0.001658539380111578 
-0.0004325249776056512 
-0.001059621750584169 
-0.0002945226831464579 
0.0002847694315814734 
-0.0003684180320955832 
-0.0007016180556717918 
-0.001799100612455643 
-0.0005273388133577535 
0.001070964135838901 
0.0001508797119197418 
0.001207550338878432 
-0.0002350803373380083 
0.001446643264437819 
0.000416106131215019 
-0.000841506311973393 
-0.002397065700210965 
0.0004703371683501354 
0.0005551079214133359 
-0.0001427705637488401 
-0.0007877966424174835 
0.0005566458084803438 
-0.0001021244073133873 
8.613453345561227e-006 
-0.0009188362353109182 
-0.0008405873924760843 
0.001573000844634015 
-0.0001660654590507012 
-0.001269095810452193 
-0.001527533833901641 
0.0002899473145887741 
0.001792943007499607 
-0.001210119714815924 
-0.000714015074360792 
0.0002038965152941755 
0.001762093334854878 
0.0006204073371627724 
0.0008724069668242444 
-0.001842088400569013 
-0.00083195804556964 
0.001263222583412146 
0.001167400765014305 
0.0002564404776452605 
-0.002180700386351673 
0.002191882354671498 
0.0006178920968009116 
-0.0004021081109553649 
-0.0005100129558885807 
-0.002210514824171395 
0.0009983207681542531 
0.0004609210803918652 
-0.001854716374210051 
-9.09944187716679e-005 
-0.001433233304551703 
-0.0004731954462274659 
-0.001221333558148042 
0.0004312671625221498 
0.001250606146233581 
0.001252595182573626 
-0.0004042448348261285 
0.001639593359978765 
-0.0001152426161353603 
0.0003146333849558417 
0.0007187129932642122 
-0.001579379891075858 
-0.0002220430287980327 
0.0001306697869705881 
-0.001569509751005287 
3.413239777947938e-005 
-0.001304809237445185 
-0.001141422666685147 
0.0007881513042198732 
0.0009273127913964871 
-0.0004404798188428267 
0.0005043706189309253 
-0.0001207884454819434 
-0.001772644661431639 
0.0001134046085610329 
0.0005579925791158397 
0.002042835030187197 
-0.0006440822805070328 
6.284454530735412e-005 
-0.001132077379401768 
5.102197046083887e-005 
-0.0004107607735340626 
0.0008861124763503483 
-0.0008282213664970417 
-0.001277151858380958 
-0.002484519612140442 
0.0008096263098148763 
0.001437708689091669 
0.00115158799810777 
-0.001154850959094196 
0.0006826621567897178 
0.0009267272016680499 
0.0002460057363183345 
-0.001009525629751664 
-0.0002635671911808888 
0.0005085437437481678 
-0.0006842398236718646 
0.001357381940060304 
-0.0007373496874493554 
-0.001192750642488386 
0.0003491419570716493 
-0.001128436282213241 
-0.001688253828266797 
0.000976150782012024 
0.001425628694440751 
-0.001094748597954675 
0.0004114303005290135 
-0.001410332914379357 
-0.0008308815235234177 
-6.740425169499965e-005 
0.0006573594573858792 
0.002010937373916276 
-0.0003993972509562772 
0.001683798014793988 
-0.0008877812018434536 
-0.001201412255941533 
-0.00064760064653496 
0.0006032633807533672 
0.0004320777860793458 
0.001078429556798553 
-0.001722032628632805 
-0.0001011315986791877 
0.0003160643082453565 
-5.436611507058009e-005 
-0.0004221449082631881 
-0.001486476876851845 
0.0003592170380080448 
0.0005074769244976625 
0.0002364615546488964 
-0.000155689340863114 
0.0004940234766452705 
-0.001383755447514691 
-0.001462700652270544 
0.000949843798834132 
0.001656352270870016 
0.001795102060327425 
-0.002534712163308027 
0.001215209077839603 
0.0007239352296003174 
7.45469366298231e-005 
-0.0009988579277648271 
-0.00186683040718072 
-0.0005721926994265736 
0.001273601118244762 
-0.0004969130811149299 
0.0003645319157250963 
0.000182211847299925 
-0.0006089342402948515 
-0.001708030784566409 
0.0009644029252557021 
0.0003807831684364782 
-0.0003278415353117528 
0.0001250874634717882 
0.001235069316272429 
-0.000305753727858541 
-7.048230893521142e-005 
-0.0008554979134780803 
0.0009542949533207152 
-0.001025705630109648 
-0.00119924991395409 
0.0005448226560720983 
0.0004637182836001248 
-0.0008115041572562935 
-0.001090063293640229 
-0.0009568220967985128 
0.0003258580475264745 
0.001568362331824185 
3.772483558371321e-005 
-0.0001330954812958147 
-0.00222768169235765 
-0.0001130579994906439 
-0.0002664594668323614 
-5.502457328279993e-005 
-0.0001144846624644133 
0.0001772719941189967 
0.0008989793428031891 
0.001039732248676905 
-0.0001527749001094072 
0.0002542590338618269 
-0.000111568003153822 
1.4870859165901e-005 
-0.00101809262562537 
-0.0007583877104328948 
0.0003724952670764669 
0.0007417772130837644 
-0.001314610459591797 
0.0003265348219303384 
-0.0001789853414770325 
-0.000605629037143776 
0.0002916738635995375 
-0.0003884704002053392 
0.002157694483355814 
-0.0009336275457536173 
-0.001097257857347055 
0.001207076710873967 
0.0005166046104726886 
-0.0002076503931823435 
-0.001582633252157715 
0.0003738842012284798 
0.001003738759424721 
-0.0008788940494457963 
0.001403653315763062 
-0.000762424833824567 
-0.0006698611814128502 
-4.240578212404658e-005 
-0.0006808737776913658 
-0.0005280391963538263 
0.0005692837512218833 
8.952507113393993e-005 
0.002161716562078119 
0.001124091136654132 
1.37359143262368e-005 
0.0002397382051549499 
-0.0008773577581951298 
-0.0007543326168889693 
-0.000395670344639765 
-0.002181640473088822 
0.0007014304597405505 
0.0002653018897569893 
-0.0004684024428876351 
-8.589702560006819e-005 
-0.0005988657062215454 
-0.0006793514834765153 
-0.0004817077191990625 
0.0005865344466280633 
0.0008119053689529719 
-0.0004174457397231094 
-0.001947166505385479 
0.0002361655153084597 
0.001171414279612798 
-0.0005749186904567404 
0.000130332974848605 
-5.768180668202347e-005 
0.000506148759654803 
-9.196267114118626e-005 
-0.001800970299571901 
0.0004829470940753279 
0.0002738430411166296 
-0.000898125923465077 
0.0004602850244366844 
0.0003895094636225236 
-0.0002568516122105227 
0.000310826247222886 
-0.0003375848850628057 
-0.001017138158648925 
0.0008324588224635039 
0.0004594207763919144 
2.620648448278707e-005 
-0.0006911362500091812 
0.0008866621595730698 
-0.0006982721180915857 
-0.00160762852021224 
-0.001970963706792075 
-0.0003983931983519547 
0.0002301183296479662 
0.002309254475316257 
0.0005903355227353778 
0.001130162469894581 
-0.0002737037283988536 
-0.0007343725680122327 
-0.001934103253900987 
-0.001544880892158186 
6.018301847872568e-005 
0.002168603566543612 
0.0004679266719624966 
-0.002980577316658155 
-0.001088957190196415 
0.0003211769670191036 
0.0008892392689323571 
-6.184279095663395e-005 
0.0006659838003931429 
0.001961576639271041 
-0.0004672402852284348 
0.0004225248800961008 
0.0006707106571654059 
0.0007535945518423243 
-0.0004471430377553266 
0.0001439070164767533 
-0.0004226939373745697 
0.0006123981319950641 
-0.002447869499730684 
0.002288816384027036 
0.001210300281012463 
-8.780197080499393e-005 
-0.001331486888475197 
-0.001727528003057442 
-0.001589663736610258 
0.0002037631918070473 
0.0003239569562465462 
0.002019127883413951 
0.002362882526823503 
-0.0002257129563236719 
-0.0001232824570900581 
-0.0004106696355031042 
-0.001823834723888455 
-0.001410537804675829 
-0.001031206648064861 
0.0003155917205358872 
-0.0001416783293540617 
-0.000697293761796938 
0.0006645442214562215 
-0.0003637044648090405 
-0.0005874257026748853 
0.001194968167997626 
-0.001067692921162929 
0.001328564153051643 
-4.573570206965558e-005 
-0.001787849422127328 
0.0004478040099697204 
0.001098315025730171 
-0.0006336653916222582 
-0.0001643535352237302 
-0.0009299495790592235 
0.001011303604993507 
0.0009485129919055182 
-0.002280829920357598 
0.0006566131717483303 
0.0007120561567916899 
-0.001079350807872613 
0.0006144927981321322 
-0.001331974623379789 
0.0002654203266156062 
-0.0001363866921694109 
-0.0004651406157221889 
0.0001325718661760995 
-0.001691440229865833 
-0.001701018201542285 
0.001206199688484568 
0.001690777999806728 
0.001791758383668074 
0.0007576598668423984 
-0.000384881526173301 
-0.001340162111806846 
-0.003191152208557537 
-1.905254698292794e-005 
0.001101094242378994 
0.0006475257624385659 
0.0005462351035086049 
-0.0001129177440492716 
-0.0008628434572303235 
-0.001490440219558926 
-0.002691451977891769 
-0.0006017082394859632 
0.00264036145422495 
0.001904440940719614 
-0.0005711438197198262 
-0.0009084868550388952 
0.0006873417576109251 
0.002066925274401449 
-0.0006132237607624083 
0.0006253054475598044 
-0.0001183822034685887 
-0.00183933704243673 
-0.0003046525810327863 
-0.0004933426588613424 
-0.0002848291231410924 
-0.0008134383869928804 
0.001849721914772852 
-0.0001732305730613376 
0.0002177830279783387 
-0.0007194672631769312 
0.002122767365307418 
0.001649508837538222 
0.0005785094445837325 
-0.001028299820680933 
-0.002292908141929505 
-0.001514231284135257 
4.273619592068778e-005 
-0.0002457710579027894 
0.001695676264377476 
0.001304884589135142 
0.0002048578993103245 
-0.0006769715425364293 
-0.002128183537039335 
-0.002037010891283164 
0.0006753095841969018 
0.0002698559213662013 
0.001339085770001207 
0.0004324210914405767 
0.0001478270353252237 
0.000104937600151288 
-0.001161850620978277 
-0.0003032857422219108 
-0.0006198232207371928 
-0.0006296834946490146 
0.0001960744837862254 
-0.0005696768012512271 
-0.001540359142773703 
-0.001068626456261684 
-0.000581705669945559 
-0.0003569222013049048 
0.001886100196085184 
0.001400300965862535 
8.169562407423827e-005 
-0.0002632117598561113 
-0.00202349057567348 
-0.001388790348554349 
0.000621895329186476 
-0.001457917115296381 
0.001135380537227737 
0.002589546714896849 
-0.0002191279737908337 
0.0001919316086056996 
-0.001624633650247911 
0.0001483753259750352 
0.0008993996340377795 
0.0002002306233948977 
2.307925024802168e-005 
-0.00029905106181756 
-0.001008849055743956 
-0.0004740835875915483 
-0.0007664925931321926 
1.130641046230682e-005 
0.0004712671865703937 
-0.0009129599904340984 
0.001533983451284831 
0.0004142789180894344 
0.002409488346546474 
0.001221304068489389 
-0.001718842181548323 
-0.001611767143501334 
-0.0008563651317047692 
-0.0007706196214189659 
0.0005983466714227268 
9.029681317446024e-005 
0.0001294392874316114 
-0.0003265428556655579 
-0.0009588540212143341 
0.0005854950378974459 
0.0003353587195133045 
0.0003650358787932113 
-0.0002157258507964721 
-0.000572436067829647 
0.0009684581298296619 
-0.001241781499946517 
0.0005960810202152037 
0.0005177157423802957 
-0.0006729646568369669 
-0.001458892058357857 
-0.0004381513865203408 
0.001055859145449319 
0.0004739394750138348 
-0.0003768064658149988 
0.0001830681347793488 
-0.0004423745178472503 
-0.001881981733090006 
-0.000392326080200829 
0.0009459261651126778 
0.0008007260613650368 
-0.0007831447939198074 
0.001229239673346395 
8.382219083839204e-005 
-0.000799500251916007 
0.001967265082382555 
-0.001112007600470378 
-0.0003824703888925779 
-0.0008787731526530433 
-0.000701774806517963 
0.001041328468120233 
5.245263326543456e-005 
-3.03725045512386e-005 
0.001057768350916742 
-0.001061230242322937 
-0.0004263011623407298 
-0.0005770916121780762 
0.0002438521548827262 
0.001628668074991468 
0.0005760670412662876 
-6.96539129237698e-005 
0.0006858895187358901 
-0.001764377291804453 
-0.0016242224489423 
-0.0003526265756845875 
0.001685333316720373 
0.0008601400441253181 
-0.001416511889772624 
-5.526710252507099e-005 
0.000211039485406927 
-0.001466095336571694 
2.268307262478768e-005 
-0.0006284942572079065 
0.001729240188430423 
-0.0009629540404375543 
-0.001372346019476787 
0.0005401281447879134 
-0.0001093370835639086 
-0.0005463876485989584 
2.592106049015066e-005 
5.359002204253276e-006 
-0.001561038757820912 
0.0007037236553076006 
-0.0001253182597462243 
0.0002454116909924051 
-0.0009840493539585329 
0.0002310117344360148 
0.001232877612844091 
-0.0004883804941895736 
0.0006288228676152659 
0.0001479816983367313 
-0.001037059012900454 
0.001708646137757293 
-0.0005798932156894959 
-0.001039212227224989 
-0.0004929975679048998 
-3.707738643739966e-005 
-0.001626584703882354 
0.001091206522327937 
0.0004497859205136745 
0.001037781331183071 
-8.249929721197949e-005 
0.0007707964890351473 
-0.001084328783212138 
-0.00131556743508277 
-0.0002913817779606693 
-0.0003530490585442808 
0.0005644938819964309 
-0.00127719686797141 
-5.331761639739302e-005 
0.0001260560981427137 
0.001595165730775269 
-0.001007041588235475 
0.0014046642407583 
-0.0004893761189824471 
-0.0006888432246179322 
0.000578363173997811 
0.0001898799734532264 
-0.0006305185220125162 
-0.0002573645978748091 
-0.0007809260473292107 
-0.001041659959217021 
0.001578584476687083 
0.0005812770261810958 
-0.001178839088025326 
-0.0001393008007907213 
0.0005607404373928373 
0.0002189444556132326 
-0.001261526119541008 
-0.000414529772512557 
0.0002961526707367058 
0.0001724468277396953 
-0.00156298993578504 
7.509875930568092e-005 
-0.0004535491640442991 
0.0002772967298885564 
0.0008497919732192117 
-0.0004449620898417892 
0.0002159041823836506 
0.0002001575569634865 
0.0005889732937442576 
-0.0001982439846057702 
-0.001955389369640587 
6.531215212821499e-006 
0.0009038386495697382 
0.000207047541431683 
-0.0005872863652362369 
-0.0005150317573488525 
0.003342721437291701 
0.001905304700161786 
-0.002142256355136099 
-0.001631383645247353 
-0.001193635708364263 
0.001552610753162456 
0.0009529549850072541 
0.0005980863437885673 
-0.0007453069282539294 
-0.002132096648936417 
-0.0003415018956627006 
-0.0007688065887470142 
0.0001933745598949028 
0.0007747237740852136 
0.001378771528810745 
0.0005046692787286716 
0.00148403130567822 
-0.002514856982650031 
-0.001417243467111953 
-0.0004385054778311203 
-0.0003740102085490492 
0.0001515592379418218 
0.0009744249473598044 
0.0008202761632724051 
0.001188695998656783 
-0.001991594045838908 
-0.001033531988967258 
0.0004593545096153407 
-0.001262934811899943 
0.001399799577047909 
0.001342437020605652 
-0.000517180460371371 
-0.0008735090820495756 
0.0004508965863645911 
-0.001502675805901345 
0.0009599735841723816 
-0.001904668865294423 
-0.0009061212220660696 
0.0001284128775330518 
-0.000723227955597519 
0.001283506929860276 
0.001030294873762186 
-2.793587987840834e-005 
-0.0003339627075716056 
-0.001114942872790819 
0.001322910326249031 
-0.0004521573397330219 
-0.00060757510778403 
-0.0007679979439001724 
0.0003519786564831582 
0.00123922827549964 
-0.0007494605734893882 
-0.00100178898616662 
0.0003677949575522547 
-3.957254762155184e-005 
-0.001152167916366368 
-0.001989214570124806 
0.001091196746910229 
0.0001682677805869736 
0.0008829421052234949 
-1.677442164697746e-005 
-0.001660362169483221 
-0.0002185063678405473 
-0.001288347102795032 
-0.0006164679697424769 
-0.0008805932780840214 
0.0004148219212989234 
0.001158502767716775 
0.002375004114521648 
-0.000358166373922733 
-0.002359622951296047 
-0.001605961745550356 
0.001692655797539551 
0.002183878598163149 
0.0001176067427265137 
0.0009483348472409434 
-0.001316826634043985 
-0.001529489733399288 
-0.0006253700536907347 
0.0003256469200279904 
0.002747013016940032 
0.001188873971463792 
-0.001804018604675642 
-0.0001195133138508907 
-0.0008391872586532541 
0.0001063342840882733 
-0.000535971113394873 
3.550388478200416e-005 
0.001151885933432844 
-0.001748658104830256 
-0.000293294892639902 
0.000955416144071951 
-0.0003749296929159021 
0.0002235795281512724 
-0.0004875317277860547 
0.0003563642872467996 
0.0006620228156868827 
-0.001630149110428302 
-0.001294105419823816 
0.001308094303595897 
0.0002219756914609325 
0.000456726993778519 
-5.459209834396511e-005 
-0.0006566727582144394 
-0.0004587468352197419 
-0.001333878395714441 
-0.0002690873579205139 
0.001983080963524124 
-0.0003524224061586802 
0.002048215916092501 
0.0001018430686981993 
-0.001423653159361824 
-0.0006249618342505803 
-0.002128720711204987 
-7.891412369169617e-005 
0.001045882621840414 
0.0003642329401578554 
0.002265541752448614 
0.001783574280036723 
-0.0004110470158926588 
-3.868500503543557e-005 
-0.0007384434545131916 
-0.001633658943217295 
-0.001129805202148144 
-0.0007195820315574034 
0.001451175878571348 
0.001655571165949049 
-0.001032186058869669 
-0.001530372979807096 
0.0005127908805911433 
-0.0006970603768035556 
-0.0001479361410688147 
-0.0008100843459355871 
0.002932605983509828 
0.001961181984452286 
-0.001192673811257316 
-0.002524001296878041 
-0.0008762249252025297 
-0.000709502014617719 
9.053822207196561e-005 
-0.0003210986793931536 
0.0008570606341599058 
0.0003655754589062713 
-9.442087486548275e-005 
-0.0008194235341530841 
-0.001800062819275063 
-3.113817604219178e-005 
-0.0003313338577419586 
0.001133093773590694 
0.001628840924823154 
0.0009853066554094485 
-0.000874579280668998 
-0.0009746228415509705 
-0.0001604170950956623 
0.0001553768620959182 
-0.0005561109913050503 
-0.0007670459056671144 
-0.00186700996075074 
-0.000950352315724623 
-0.0006247649798440471 
0.002407635047337783 
0.003284076478803868 
-0.0004446666580810755 
0.0002645704264810661 
-0.002713380605097547 
-0.0007726146898852447 
-0.000793953326700264 
-0.001279981599592531 
0.0006923180833848226 
0.0002546354961054871 
-0.0009113294232252073 
0.0009064796308054914 
0.001263551209518034 
-0.002333598174892535 
-0.0002333187158861898 
-0.0001205909849782212 
0.00157288474653647 
0.001232219878754272 
-0.0008863945956465275 
-0.0001450973105152826 
0.0002856833848437115 
0.002999232307918289 
-0.000158122537083598 
-0.000935447420768471 
-0.001161258080722123 
-0.001184593535847348 
-0.001478240798601777 
-0.0006029616105629511 
0.001840365512872395 
0.001029110254380789 
0.0005326525076957978 
-0.001644067287443105 
-0.001302479849788106 
-0.001065051117761089 
-0.001630645222025768 
0.0009049233543755247 
0.002646560687082112 
0.001555613425089927 
0.001149523631666434 
-0.0022338430484151 
-0.0003524537223092693 
-0.001690673728918887 
-0.001638657755091853 
0.001710859448672907 
0.0007771838916744155 
0.00290417147595367 
0.0006614828298900064 
-0.0007528259028608357 
-0.001405387371692197 
-0.001822154699044261 
-0.001590641098137645 
8.594425258490174e-005 
0.00125886870490433 
0.001042135039527345 
0.001159549687720726 
-0.0009663343769330458 
0.0005738861012132467 
0.001322149258986082 
-0.0006762359620705131 
-0.001718199341074137 
-0.001419809037188034 
0.001930532902116624 
0.000121121528790393 
-0.00107231760609523 
-0.0004219007948523239 
-0.000217974459951378 
-0.0002437461965437955 
-0.0002918372121766432 
-0.0004902444969998316 
-0.0005677651032748853 
7.349765190539884e-005 
0.0004820227350829923 
0.002003885669081809 
0.0009123936301394485 
-0.001455121035581125 
-0.0006094542033159922 
-0.001487163500828235 
-0.001418927448042638 
-0.001434073709504428 
-0.001112409960969204 
0.002091635660416839 
0.002657568105789257 
-0.000877431507668917 
0.0002589851338383313 
-0.0007888793486047306 
0.0004769879217307803 
1.462893107302497e-005 
-0.001518467384650263 
0.001997813345150303 
-0.0004035521799640854 
-0.001182676028799197 
3.120141865830123e-005 
-6.030974640038496e-005 
0.000148527194433688 
0.001384056286299236 
-0.0002758256743213032 
0.0002951134459865078 
-0.0001503257040997761 
-0.001135264660865223 
0.0005718449923113534 
-0.001503471439732132 
0.001156870843534608 
-0.0004167376655500914 
9.829025386771565e-005 
-0.00118654747760479 
-0.001924206048001936 
-0.001109763313414363 
0.001124036926713763 
0.001580070690844003 
0.001954695255936101 
0.0002872285240073172 
-0.0008117378930770814 
-0.001191480239951493 
-0.001869963305269395 
-0.0007464317626611666 
0.001190661050408617 
0.0006012922044696924 
-0.000825292806655528 
0.0005128276463894161 
-0.0001609821634712394 
0.0002244245601684492 
-0.002822253257535341 
-0.0002505291752633325 
0.0009743338472981268 
0.00164097456872935 
0.002085115365706381 
0.0005696780237020506 
-0.0001597100922055019 
-0.001411229568480339 
-0.001772435928659348 
-0.0002806908287406285 
-0.0008142060508761682 
0.001136630474450069 
0.0001369525241460577 
0.0006396743111708299 
-0.0004812972174260737 
-0.0001153151493264264 
-0.0006294251321470987 
-0.00107112138176868 
0.001150162349290067 
-0.0003031112516238101 
-0.0003480221831572316 
6.257560383944159e-006 
-0.001858582583118063 
0.0002606977172203627 
4.322764660186614e-005 
-0.001052855533803038 
0.0006704984538385215 
0.001563684458714089 
-0.001639262852376418 
-0.000265927269672096 
-0.0002911149302413516 
0.003595669422546942 
0.001638458524390076 
-0.001742360333552082 
-0.0007396714558897358 
-0.001271761971997337 
-0.0007816795992547486 
-0.0001381920748461745 
-0.000666739670872128 
-0.0001039578143008898 
0.001895468245132945 
-0.0007291503542915819 
-0.0001628777252633598 
-4.869723550129336e-005 
0.00127174649690823 
-0.0009538444375183964 
-0.001072049073304828 
-0.0005519513309915617 
0.00140747650283468 
-0.001083104174703202 
0.0001153185484457476 
0.0002059414855033724 
0.0001804620791745543 
-0.0003396868632954118 
-0.0006014414667209033 
-0.001157042622046554 
-0.001748974424884052 
-0.0004067556814124973 
0.0009970425558002316 
0.002352652874774426 
-0.001382584455129228 
0.0004121945360701618 
-0.0006298570403957612 
-0.001375209161478523 
0.0003049124100377634 
-0.0004687117069343369 
0.0008093678980981409 
0.001660122564196502 
-0.001599959368757832 
0.001876534015543298 
-0.0001308988640107591 
-0.001046234002607599 
0.0005849719915658075 
-9.264279901923351e-005 
4.514157102865196e-005 
-0.0002774942589396098 
0.0001206940174623937 
0.001479665379990485 
-2.504872819615289e-005 
2.824968999674019e-005 
-0.001604740618123753 
6.65647796271172e-005 
0.0004451875123355367 
-0.001129920248284079 
0.001263120529489474 
-4.911345551747016e-005 
-0.0001045604118381271 
0.00048338353966738 
0.0006280898762523995 
-0.001113213181585859 
-0.0004226271315024328 
-0.00133451465239468 
0.002392417860686942 
0.0009394709769311858 
-0.0003747478721478443 
-0.001398875204321552 
-0.0005586196643916758 
-0.001299086526049808 
-0.0004337950652282089 
5.862298514970871e-005 
-0.0003560121975425494 
-2.86812412485514e-005 
-0.0003344365379279004 
0.0008913611360122028 
0.001498558453676122 
-0.000769345686913939 
-0.000313810261526516 
-0.001212270005077408 
-0.0003837977661845992 
-0.0007558666373528233 
-0.001103842618606925 
0.001568144874728328 
0.001511145092713095 
-0.0007456211040630795 
8.170837351327517e-005 
-0.0008198291873619551 
-0.0003719235018661549 
0.0001188174790931277 
-0.0002969394937439944 
0.002620463177752124 
0.001570404951670257 
-0.001700062911030277 
-0.0008060582486611367 
-0.001796040593169317 
0.0006096599268887135 
0.0002808641701805948 
-0.001440584073319429 
-0.0008686018280733812 
0.001471349736515302 
-0.0007489563484512098 
0.0003697094664077629 
-0.0003728386964439467 
0.00255734059802644 
-0.001111527849151466 
-0.001559233258099581 
-0.001474109996880219 
0.00060708151029305 
-0.0006880126254969385 
0.0004559431186101841 
0.0005122189566394212 
0.001047655910291336 
0.0002711144943338689 
-0.001556148000972894 
0.0005973829153361567 
-0.001274199790235292 
0.0004816343516007771 
0.0003924254197763997 
-0.0006466056046134391 
-0.000596602045158579 
0.0009764569117739373 
-0.00117024542556985 
-0.00250872747538861 
-0.0006493609974808213 
0.0005212956886187893 
0.001412662802236314 
0.001322169925232089 
0.002102966906906222 
0.001790280337927154 
0.00087982747886907 
-0.002709888633318894 
-0.001039256977057495 
-0.001334154030472188 
2.041017200989479e-005 
-0.0003393898118729709 
-0.0002157183220096252 
0.001418053360798472 
0.0002942019399866521 
-0.002012372430440703 
0.0008036885637693797 
-0.0006257179045110353 
-0.0004679920541480657 
0.000148128139977919 
-0.000174983096269072 
0.0007218599844734132 
-0.0003729833815473935 
-0.001206785480112874 
-0.001257617699462879 
-0.001252699304932443 
-0.0006776113473623107 
0.003501654408668288 
-8.668138828511578e-005 
0.0007402615258726829 
5.743947702036738e-005 
0.0004631080998045205 
0.0007434586789718152 
-0.001088470422954408 
-0.0005771276942347525 
-0.0009499776189251469 
0.000465461372864215 
-0.0006288507786871775 
-0.0009040133376774969 
0.001441464322338574 
0.001633980042616332 
-0.0005634779492713507 
-0.001278298040189089 
-0.0008465329859923465 
-0.002465154505171798 
-0.0001408128058758085 
-0.0008956184330621965 
-0.0001372944843027349 
0.003087986851934074 
0.0002484817874193517 
0.0001497247971830152 
-0.0005136249380877951 
-0.000743149326231983 
6.813286830749775e-005 
-0.0007797603035287879 
0.001932971915109316 
-0.0006872268078227624 
0.0004055280497008324 
0.0004477935077534665 
-0.001275379805057014 
0.000109887944230015 
-0.0008422548287263099 
-0.001246382483485593 
0.0002011798222306914 
-0.0002505108158239604 
0.0009134127373507243 
0.00139414065786639 
-0.0009629919420747271 
-0.001441614644999555 
-0.00056696132544474 
-0.0007941804725050324 
0.0002230315380215604 
-0.0003747827413905045 
0.0002024917540736409 
0.001220828908415144 
0.0008345151913676057 
-7.146438452768853e-005 
8.228665062870471e-005 
-0.001969841150861405 
8.818368407260736e-005 
-0.0008574476676719391 
-0.0003308598708458286 
0.0008973125630554263 
0.001447628664484447 
-5.462430947812872e-005 
0.001672416388274371 
0.0007477078352371403 
4.114884259198417e-005 
0.0003242559184746308 
-0.002520929886332943 
-0.0002340303956677129 
-0.000612995530305147 
-0.0002433637409766834 
0.0003983538132784693 
-0.0004430916835555768 
-0.0006954925772552493 
0.001278152821144379 
-0.0001068290621735929 
0.0003003236611634957 
-0.001196710622129021 
-0.001166809892453648 
0.0009083679156744668 
0.0008125714938654073 
0.000572743276889724 
0.0002238363011826684 
-0.0006990902008014113 
0.0003181084962014991 
-0.001627416404106227 
-0.001369785950884284 
-0.0006276597614602496 
0.0003484069391688286 
0.0004843401052877392 
0.0008969984871192473 
0.0002164922763003651 
0.0004705825321810889 
-0.0009992945214888861 
0.0007320071082993098 
-0.0005748831836314602 
-0.0001549711000136398 
0.002447510747157004 
-1.397506162512684e-005 
-0.0007559340935122828 
-0.0001708121167662949 
-0.002191284295163605 
-0.001288745188522455 
0.0003099105096683884 
-2.144860247973245e-006 
0.0003311760974042251 
0.001842233779890479 
-0.001465032923167635 
-9.509533699880322e-005 
-0.00028709107845175 
0.0009321691975435563 
0.0001586553724623278 
-0.00061265153812366 
-0.001107891540746766 
-0.001242637536975072 
0.001120133536303958 
0.001511891126249629 
-0.001475567701290404 
-0.00105425308991258 
0.002148852675531824 
0.0003688936970077919 
-0.000995212514594923 
-0.00105455405860832 
0.000105672502749672 
0.000940991476381481 
-0.001128756634309066 
-0.0006927390916861567 
0.001064177157000022 
-0.0003644475738938998 
-0.002091800204890815 
0.0004070111638835596 
-0.0006165273963586584 
0.0008913922716511848 
0.0007298317747006129 
-0.0001240355488065797 
-0.0002511837802003225 
-0.0004348763751400825 
-0.001769062938683241 
-0.0007279853143367611 
9.968233457518486e-005 
0.0008988101137851344 
0.001685799081966085 
0.001821640375569139 
0.001552544859928108 
-0.00090277301120933 
2.415151975316684e-005 
-0.001455744491178006 
-0.001879739762378741 
0.0004586827012455767 
-0.0002747688580479806 
0.0001633893133757796 
0.0009108717648576444 
0.0003114987520299838 
0.0001987620186517228 
-0.001466312243413865 
-0.001025370071384767 
0.0009829606929556568 
-0.000778410713695533 
-0.0007111239579309129 
0.001844337321190117 
0.0007761586944636476 
-0.0001786723075373752 
-0.001577573834439726 
-0.001192113314788547 
0.001860083497741915 
-0.001384087294858936 
-0.00160343988696055 
0.001989078862271388 
0.000895583884318482 
0.0003272181283234984 
-0.001629283565856533 
-0.001013355673006898 
0.001379717972018198 
-0.0009788155397037809 
-0.002244131933180868 
0.0005822656988407489 
-0.000225941773837827 
0.002163537413414365 
0.001755527089578418 
-0.0003927407949075768 
0.0003944059982931855 
-0.002752034362383294 
-0.001193179175341278 
-0.0008946673469113202 
4.852015937446496e-005 
0.001564883020500983 
0.002377985765874208 
-0.0004171723177903516 
-0.000557952958702335 
-0.001488997614450793 
0.0007654010818250172 
-0.001231955728658773 
-0.001046831761263163 
-0.0009137722611053183 
0.0005444225044424428 
0.0007201968866221943 
0.0001331408062479574 
0.0003658792515314791 
-0.001171326736180841 
-0.001111935058584966 
-0.0005767963467599843 
-0.0002947873260260153 
0.001928795270656096 
0.001799435831899388 
-0.000514408318078917 
-0.000749722974030626 
0.00136730014935904 
0.0001093944927134047 
-0.0003323308273205757 
-0.0007818222551281434 
-0.001269901811971441 
4.917569204885742e-006 
-0.0005187611269844624 
0.0007522939801296287 
0.002373785089982704 
0.0004856695550052446 
-0.0003525820032633151 
-0.00157618908053839 
-0.001904264081084497 
-0.0008248711626935718 
-0.0002563257051783515 
0.001471093196355097 
0.0008004525601007384 
-0.0001380723816785416 
-0.0007592049839191234 
-0.002547490913491901 
-0.0001897553734195172 
-0.000375302628717408 
0.0006753882280856929 
0.001854565446147872 
-0.0005942268515511774 
-0.001276575070931478 
-9.554357507939996e-005 
0.000398331203267504 
-0.0005438214210458958 
-0.0005418136523716384 
0.00117494271534081 
0.0008605088694900399 
-0.0007410640271192646 
-0.0002042241480294515 
0.0007689162485781055 
3.93111915750542e-005 
-0.000221216213511015 
2.717690126459623e-005 
0.0003237354948618942 
-0.0006622267062675575 
0.0002580946313893123 
2.537114567133334e-005 
0.000662113568610612 
0.0007443129140193249 
-0.001330815347681967 
-0.0002772835610490817 
3.138046116543237e-005 
-0.0007445539943049274 
-0.0001670162263260256 
-0.0006391631980386845 
-0.0005608538819659152 
0.002534722299565748 
0.0008064862225937108 
-0.001442467953469104 
-0.0008843590614676545 
-0.000326691281740406 
-0.002918638362422014 
6.864869878500403e-005 
-0.0002160372006315268 
0.002216647458893252 
0.003637852535716312 
-0.0003049847482624813 
-0.0007029741940278577 
-0.002428680221602968 
-0.001543394641222929 
0.0007882242335172244 
0.0007812471617379376 
0.0002046544558938593 
0.0008499354339661384 
0.001243667680734808 
-0.001331461337816134 
-0.001677470988537603 
-0.0005990422505070833 
0.0009891451123977585 
-0.0004735591648236342 
0.0003009660174615189 
0.002930049300254518 
-0.0003292105332387503 
-0.001413632578589881 
-0.002096424892151589 
0.0006148591349282027 
0.0002493257600715327 
-0.00111550914553899 
0.001626973752910789 
0.001016012464188277 
-0.002359100137075497 
-0.0002706191653972826 
-0.0004410768406958354 
7.307587433992895e-005 
7.618153105106572e-005 
-0.00101035779917603 
-0.001972520019309833 
0.001852358530055136 
0.0009829463038432862 
-0.0006340879336513755 
-3.950086841448411e-005 
-0.0008399250665138369 
5.991961727098459e-005 
0.0003518231104971248 
-0.0003815248843894675 
0.0004936289867610707 
0.0001736658032779843 
-0.0005553539483725934 
4.305992400148173e-005 
-0.001195026017898749 
-0.001003169049098797 
-0.002222653857746566 
0.002012551184436503 
0.002220696250519326 
-0.0001378058461954808 
0.0005111955292061033 
-0.0008686947448642516 
-0.001005515503563724 
-0.001326233081075894 
-4.750576059472021e-006 
0.002296313399132204 
-0.0003058705818310005 
0.001068719284526829 
0.001430439570801523 
-0.00285468626181069 
-0.00110591776327379 
-0.001082288118310439 
-0.0003298434804244938 
-0.00038271779633573 
0.001317568699704789 
0.001919883520627713 
0.001040997264066338 
-0.002054076263630558 
-0.0009171914572223726 
-0.001133252939139756 
-0.0006428246900784906 
0.0008553961731862153 
0.002214324218806961 
-3.395624112133226e-006 
0.0006281767162166736 
-0.001654816452496509 
-0.002873691455624852 
-0.0002063820576888788 
0.0002145026501260296 
0.001275750181004477 
0.004092216646145134 
-0.0004852867273252768 
-0.001658094966142529 
-0.0009310337528807273 
-0.002179901738018912 
-0.001167923851509321 
0.0004184255024543977 
0.001152546253281315 
0.002056375411372152 
0.0007489074158238706 
-0.0008621984024804542 
-0.0007696437709169744 
-0.003165536067468504 
0.0001490189659786273 
0.0005535600451742955 
0.004038421266958631 
-0.001114901336390347 
-8.661702432671947e-005 
0.0005149185923908188 
-0.001484788383494659 
-0.002311385702873796 
0.0001070225356737762 
-0.00056773460764316 
0.003482196103279536 
0.002149557311847264 
-0.0004298791562918498 
-0.001478846538470479 
-0.001543663231094514 
-0.001712029045900253 
0.0004538992715967411 
0.0004759237060446902 
0.001624791488751703 
0.00335443280689758 
-0.001389664382515046 
-0.001268407513048448 
-0.002218802156306689 
-0.00161962393901339 
-0.001557991303620659 
-0.0006223155295179233 
0.002752066866068241 
0.00131150652300445 
0.0004368676142263286 
-1.657257500719229e-005 
-0.001351260064291377 
-0.002810393100703595 
-0.0009359737692098747 
-0.000389154838817351 
0.002321407000979413 
0.002484537555980233 
0.0004133455247348266 
0.0003688586809143163 
-0.002077949949718207 
-0.002820116483272541 
0.000523756291081292 
0.001878003830950336 
7.167598196494578e-005 
0.002611160625883684 
-0.0004532754599141099 
-0.0008103639131160666 
-0.001642501255802554 
-0.002449846489991381 
-0.0001370108462601995 
0.0004490810113687547 
0.002457175631462252 
0.001860356540912802 
-0.0003704897498047714 
-0.0006464319371175742 
-0.001767329033466662 
-0.002032376915627961 
-0.0004279044772624489 
-0.0001050609829933827 
0.001411708284134728 
0.001703383794702422 
-0.0004726456958278187 
-3.802200656930708e-005 
-0.000695192609137633 
